<?xml version="1.0"?>
<opencv_storage>
<cascade>
  <stageType>BOOST</stageType>
  <featureType>HAAR</featureType>
  <height>18</height>
  <width>18</width>
  <stageParams>
    <boostType>GAB</boostType>
    <minHitRate>9.9500000476837158e-01</minHitRate>
    <maxFalseAlarm>5.0000000000000000e-01</maxFalseAlarm>
    <weightTrimRate>9.4999999999999996e-01</weightTrimRate>
    <maxDepth>1</maxDepth>
    <maxWeakCount>10</maxWeakCount></stageParams>
  <featureParams>
    <maxCatCount>0</maxCatCount>
    <featSize>1</featSize>
    <mode>ALL</mode></featureParams>
  <stageNum>8</stageNum>
  <stages>
    <!-- stage 0 -->
    <_>
      <maxWeakCount>4</maxWeakCount>
      <stageThreshold>-2.1740465164184570e+00</stageThreshold>
      <weakClassifiers>
        <_>
          <internalNodes>
            0 -1 18 1.4414981007575989e-01</internalNodes>
          <leafValues>
            -9.3373215198516846e-01 7.3558115959167480e-01</leafValues></_>
        <_>
          <internalNodes>
            0 -1 7 4.3000601232051849e-02</internalNodes>
          <leafValues>
            -8.3304625749588013e-01 6.6169714927673340e-01</leafValues></_>
        <_>
          <internalNodes>
            0 -1 31 -1.0301068425178528e-01</internalNodes>
          <leafValues>
            6.1894303560256958e-01 -7.4996387958526611e-01</leafValues></_>
        <_>
          <internalNodes>
            0 -1 23 3.6593556404113770e-02</internalNodes>
          <leafValues>
            -8.7904733419418335e-01 3.4269571304321289e-01</leafValues></_></weakClassifiers></_>
    <!-- stage 1 -->
    <_>
      <maxWeakCount>5</maxWeakCount>
      <stageThreshold>-2.4760341644287109e+00</stageThreshold>
      <weakClassifiers>
        <_>
          <internalNodes>
            0 -1 17 1.4939500391483307e-01</internalNodes>
          <leafValues>
            -9.2731767892837524e-01 5.2876710891723633e-01</leafValues></_>
        <_>
          <internalNodes>
            0 -1 5 7.6700739562511444e-02</internalNodes>
          <leafValues>
            -7.2413796186447144e-01 6.6003400087356567e-01</leafValues></_>
        <_>
          <internalNodes>
            0 -1 13 4.9058616161346436e-02</internalNodes>
          <leafValues>
            -7.3122191429138184e-01 5.0191646814346313e-01</leafValues></_>
        <_>
          <internalNodes>
            0 -1 4 -5.0027228891849518e-02</internalNodes>
          <leafValues>
            5.2853161096572876e-01 -5.7292300462722778e-01</leafValues></_>
        <_>
          <internalNodes>
            0 -1 27 4.3521267361938953e-03</internalNodes>
          <leafValues>
            -7.5357192754745483e-01 4.0155041217803955e-01</leafValues></_></weakClassifiers></_>
    <!-- stage 2 -->
    <_>
      <maxWeakCount>5</maxWeakCount>
      <stageThreshold>-1.3507727384567261e+00</stageThreshold>
      <weakClassifiers>
        <_>
          <internalNodes>
            0 -1 33 -6.1138428747653961e-02</internalNodes>
          <leafValues>
            6.1276364326477051e-01 -7.4363291263580322e-01</leafValues></_>
        <_>
          <internalNodes>
            0 -1 19 1.4177212119102478e-01</internalNodes>
          <leafValues>
            -8.3071511983871460e-01 4.2536857724189758e-01</leafValues></_>
        <_>
          <internalNodes>
            0 -1 11 3.1762205064296722e-02</internalNodes>
          <leafValues>
            -7.0858383178710938e-01 5.2237278223037720e-01</leafValues></_>
        <_>
          <internalNodes>
            0 -1 30 1.1713532730937004e-03</internalNodes>
          <leafValues>
            -8.8628691434860229e-01 3.0850666761398315e-01</leafValues></_>
        <_>
          <internalNodes>
            0 -1 36 1.2759812176227570e-02</internalNodes>
          <leafValues>
            -4.5353072881698608e-01 6.2365233898162842e-01</leafValues></_></weakClassifiers></_>
    <!-- stage 3 -->
    <_>
      <maxWeakCount>5</maxWeakCount>
      <stageThreshold>-1.4206019639968872e+00</stageThreshold>
      <weakClassifiers>
        <_>
          <internalNodes>
            0 -1 1 -7.0852065086364746e-01</internalNodes>
          <leafValues>
            5.8299356698989868e-01 -6.9649803638458252e-01</leafValues></_>
        <_>
          <internalNodes>
            0 -1 26 6.8458355963230133e-03</internalNodes>
          <leafValues>
            -7.5941139459609985e-01 3.9499431848526001e-01</leafValues></_>
        <_>
          <internalNodes>
            0 -1 3 5.6232184171676636e-02</internalNodes>
          <leafValues>
            -8.1840485334396362e-01 4.2865547537803650e-01</leafValues></_>
        <_>
          <internalNodes>
            0 -1 14 8.3975911140441895e-02</internalNodes>
          <leafValues>
            -7.2117972373962402e-01 5.0976675748825073e-01</leafValues></_>
        <_>
          <internalNodes>
            0 -1 6 -4.3498296290636063e-03</internalNodes>
          <leafValues>
            3.4394547343254089e-01 -6.8394970893859863e-01</leafValues></_></weakClassifiers></_>
    <!-- stage 4 -->
    <_>
      <maxWeakCount>6</maxWeakCount>
      <stageThreshold>-9.6205240488052368e-01</stageThreshold>
      <weakClassifiers>
        <_>
          <internalNodes>
            0 -1 34 2.1179739385843277e-02</internalNodes>
          <leafValues>
            -7.1731007099151611e-01 5.9259259700775146e-01</leafValues></_>
        <_>
          <internalNodes>
            0 -1 28 2.7827876619994640e-03</internalNodes>
          <leafValues>
            -8.0499708652496338e-01 2.8863769769668579e-01</leafValues></_>
        <_>
          <internalNodes>
            0 -1 16 -1.7646335065364838e-02</internalNodes>
          <leafValues>
            4.9083474278450012e-01 -6.4005506038665771e-01</leafValues></_>
        <_>
          <internalNodes>
            0 -1 29 -1.8905203323811293e-03</internalNodes>
          <leafValues>
            -7.9676175117492676e-01 3.8692453503608704e-01</leafValues></_>
        <_>
          <internalNodes>
            0 -1 35 1.6769278794527054e-02</internalNodes>
          <leafValues>
            -5.5698210000991821e-01 5.3626447916030884e-01</leafValues></_>
        <_>
          <internalNodes>
            0 -1 12 1.3802940957248211e-02</internalNodes>
          <leafValues>
            -7.6371747255325317e-01 4.2754924297332764e-01</leafValues></_></weakClassifiers></_>
    <!-- stage 5 -->
    <_>
      <maxWeakCount>5</maxWeakCount>
      <stageThreshold>-1.1087695360183716e+00</stageThreshold>
      <weakClassifiers>
        <_>
          <internalNodes>
            0 -1 0 -1.7448879778385162e-02</internalNodes>
          <leafValues>
            5.5433148145675659e-01 -7.6189440488815308e-01</leafValues></_>
        <_>
          <internalNodes>
            0 -1 32 6.6048029111698270e-04</internalNodes>
          <leafValues>
            -7.4983155727386475e-01 4.3502390384674072e-01</leafValues></_>
        <_>
          <internalNodes>
            0 -1 38 -1.5127406222745776e-03</internalNodes>
          <leafValues>
            -7.6765012741088867e-01 4.5998463034629822e-01</leafValues></_>
        <_>
          <internalNodes>
            0 -1 2 -2.6897412538528442e-01</internalNodes>
          <leafValues>
            8.5332667827606201e-01 -4.1884556412696838e-01</leafValues></_>
        <_>
          <internalNodes>
            0 -1 8 1.8971206154674292e-03</internalNodes>
          <leafValues>
            -8.1469470262527466e-01 4.0459668636322021e-01</leafValues></_></weakClassifiers></_>
    <!-- stage 6 -->
    <_>
      <maxWeakCount>4</maxWeakCount>
      <stageThreshold>-1.7434046268463135e+00</stageThreshold>
      <weakClassifiers>
        <_>
          <internalNodes>
            0 -1 20 9.0527012944221497e-02</internalNodes>
          <leafValues>
            -7.7854520082473755e-01 6.1362481117248535e-01</leafValues></_>
        <_>
          <internalNodes>
            0 -1 37 -5.5325130233541131e-04</internalNodes>
          <leafValues>
            4.4422569870948792e-01 -8.0798548460006714e-01</leafValues></_>
        <_>
          <internalNodes>
            0 -1 21 -1.7794074956327677e-03</internalNodes>
          <leafValues>
            4.5703968405723572e-01 -8.7720721960067749e-01</leafValues></_>
        <_>
          <internalNodes>
            0 -1 10 -2.2935757413506508e-02</internalNodes>
          <leafValues>
            7.1316415071487427e-01 -6.1391365528106689e-01</leafValues></_></weakClassifiers></_>
    <!-- stage 7 -->
    <_>
      <maxWeakCount>5</maxWeakCount>
      <stageThreshold>-1.0841692686080933e+00</stageThreshold>
      <weakClassifiers>
        <_>
          <internalNodes>
            0 -1 22 -1.6085204482078552e-01</internalNodes>
          <leafValues>
            6.4267218112945557e-01 -7.7982437610626221e-01</leafValues></_>
        <_>
          <internalNodes>
            0 -1 25 6.4148247241973877e-02</internalNodes>
          <leafValues>
            -6.3010108470916748e-01 7.2040069103240967e-01</leafValues></_>
        <_>
          <internalNodes>
            0 -1 24 1.0532274842262268e-02</internalNodes>
          <leafValues>
            -6.7470765113830566e-01 5.2945786714553833e-01</leafValues></_>
        <_>
          <internalNodes>
            0 -1 9 -4.0664742700755596e-03</internalNodes>
          <leafValues>
            -9.2334538698196411e-01 3.6956545710563660e-01</leafValues></_>
        <_>
          <internalNodes>
            0 -1 15 -5.8785905130207539e-03</internalNodes>
          <leafValues>
            6.3089835643768311e-01 -5.6872117519378662e-01</leafValues></_></weakClassifiers></_></stages>
  <features>
    <_>
      <rects>
        <_>
          0 0 6 6 -1.</_>
        <_>
          0 0 3 3 2.</_>
        <_>
          3 3 3 3 2.</_></rects>
      <tilted>0</tilted></_>
    <_>
      <rects>
        <_>
          0 0 15 12 -1.</_>
        <_>
          5 4 5 4 9.</_></rects>
      <tilted>0</tilted></_>
    <_>
      <rects>
        <_>
          0 0 16 18 -1.</_>
        <_>
          0 0 8 9 2.</_>
        <_>
          8 9 8 9 2.</_></rects>
      <tilted>0</tilted></_>
    <_>
      <rects>
        <_>
          2 4 4 10 -1.</_>
        <_>
          2 9 4 5 2.</_></rects>
      <tilted>0</tilted></_>
    <_>
      <rects>
        <_>
          3 1 9 8 -1.</_>
        <_>
          3 3 9 4 2.</_></rects>
      <tilted>0</tilted></_>
    <_>
      <rects>
        <_>
          3 5 4 8 -1.</_>
        <_>
          3 9 4 4 2.</_></rects>
      <tilted>0</tilted></_>
    <_>
      <rects>
        <_>
          3 12 6 2 -1.</_>
        <_>
          6 12 3 2 2.</_></rects>
      <tilted>0</tilted></_>
    <_>
      <rects>
        <_>
          4 4 2 10 -1.</_>
        <_>
          4 9 2 5 2.</_></rects>
      <tilted>0</tilted></_>
    <_>
      <rects>
        <_>
          4 7 7 2 -1.</_>
        <_>
          4 8 7 1 2.</_></rects>
      <tilted>0</tilted></_>
    <_>
      <rects>
        <_>
          4 14 3 3 -1.</_>
        <_>
          4 15 3 1 3.</_></rects>
      <tilted>0</tilted></_>
    <_>
      <rects>
        <_>
          5 1 6 2 -1.</_>
        <_>
          7 3 2 2 3.</_></rects>
      <tilted>1</tilted></_>
    <_>
      <rects>
        <_>
          5 4 2 8 -1.</_>
        <_>
          5 8 2 4 2.</_></rects>
      <tilted>0</tilted></_>
    <_>
      <rects>
        <_>
          5 8 13 6 -1.</_>
        <_>
          5 10 13 2 3.</_></rects>
      <tilted>0</tilted></_>
    <_>
      <rects>
        <_>
          6 0 8 7 -1.</_>
        <_>
          10 0 4 7 2.</_></rects>
      <tilted>0</tilted></_>
    <_>
      <rects>
        <_>
          6 0 8 10 -1.</_>
        <_>
          10 0 4 10 2.</_></rects>
      <tilted>0</tilted></_>
    <_>
      <rects>
        <_>
          6 3 6 4 -1.</_>
        <_>
          6 4 6 2 2.</_></rects>
      <tilted>0</tilted></_>
    <_>
      <rects>
        <_>
          6 4 1 6 -1.</_>
        <_>
          6 4 1 3 2.</_></rects>
      <tilted>1</tilted></_>
    <_>
      <rects>
        <_>
          8 0 9 13 -1.</_>
        <_>
          11 0 3 13 3.</_></rects>
      <tilted>0</tilted></_>
    <_>
      <rects>
        <_>
          8 1 9 12 -1.</_>
        <_>
          11 1 3 12 3.</_></rects>
      <tilted>0</tilted></_>
    <_>
      <rects>
        <_>
          8 1 9 16 -1.</_>
        <_>
          11 1 3 16 3.</_></rects>
      <tilted>0</tilted></_>
    <_>
      <rects>
        <_>
          8 4 8 13 -1.</_>
        <_>
          10 4 4 13 2.</_></rects>
      <tilted>0</tilted></_>
    <_>
      <rects>
        <_>
          8 8 2 2 -1.</_>
        <_>
          8 8 2 1 2.</_></rects>
      <tilted>1</tilted></_>
    <_>
      <rects>
        <_>
          9 2 8 5 -1.</_>
        <_>
          9 2 4 5 2.</_></rects>
      <tilted>1</tilted></_>
    <_>
      <rects>
        <_>
          9 6 6 9 -1.</_>
        <_>
          11 9 2 3 9.</_></rects>
      <tilted>0</tilted></_>
    <_>
      <rects>
        <_>
          9 10 6 7 -1.</_>
        <_>
          11 10 2 7 3.</_></rects>
      <tilted>0</tilted></_>
    <_>
      <rects>
        <_>
          11 1 6 11 -1.</_>
        <_>
          13 3 2 11 3.</_></rects>
      <tilted>1</tilted></_>
    <_>
      <rects>
        <_>
          11 3 3 6 -1.</_>
        <_>
          12 3 1 6 3.</_></rects>
      <tilted>0</tilted></_>
    <_>
      <rects>
        <_>
          11 6 3 11 -1.</_>
        <_>
          12 6 1 11 3.</_></rects>
      <tilted>0</tilted></_>
    <_>
      <rects>
        <_>
          11 7 3 4 -1.</_>
        <_>
          12 7 1 4 3.</_></rects>
      <tilted>0</tilted></_>
    <_>
      <rects>
        <_>
          11 8 2 2 -1.</_>
        <_>
          11 8 2 1 2.</_></rects>
      <tilted>1</tilted></_>
    <_>
      <rects>
        <_>
          11 11 2 2 -1.</_>
        <_>
          11 11 2 1 2.</_></rects>
      <tilted>1</tilted></_>
    <_>
      <rects>
        <_>
          12 0 3 9 -1.</_>
        <_>
          9 3 3 3 3.</_></rects>
      <tilted>1</tilted></_>
    <_>
      <rects>
        <_>
          13 2 1 2 -1.</_>
        <_>
          13 2 1 1 2.</_></rects>
      <tilted>1</tilted></_>
    <_>
      <rects>
        <_>
          14 0 1 12 -1.</_>
        <_>
          11 3 1 6 2.</_></rects>
      <tilted>1</tilted></_>
    <_>
      <rects>
        <_>
          14 1 4 1 -1.</_>
        <_>
          14 1 2 1 2.</_></rects>
      <tilted>1</tilted></_>
    <_>
      <rects>
        <_>
          14 1 4 16 -1.</_>
        <_>
          14 1 2 8 2.</_>
        <_>
          16 9 2 8 2.</_></rects>
      <tilted>0</tilted></_>
    <_>
      <rects>
        <_>
          14 2 4 10 -1.</_>
        <_>
          14 2 2 5 2.</_>
        <_>
          16 7 2 5 2.</_></rects>
      <tilted>0</tilted></_>
    <_>
      <rects>
        <_>
          16 0 2 6 -1.</_>
        <_>
          17 0 1 6 2.</_></rects>
      <tilted>0</tilted></_>
    <_>
      <rects>
        <_>
          16 4 2 4 -1.</_>
        <_>
          16 4 1 4 2.</_></rects>
      <tilted>1</tilted></_></features></cascade>
</opencv_storage>
