<?xml version="1.0"?>
<opencv_storage>
<stage4>
  <maxWeakCount>6</maxWeakCount>
  <stageThreshold>-9.6205240488052368e-01</stageThreshold>
  <weakClassifiers>
    <_>
      <internalNodes>
        0 -1 76887 2.1179739385843277e-02</internalNodes>
      <leafValues>
        -7.1731007099151611e-01 5.9259259700775146e-01</leafValues></_>
    <_>
      <internalNodes>
        0 -1 68852 2.7827876619994640e-03</internalNodes>
      <leafValues>
        -8.0499708652496338e-01 2.8863769769668579e-01</leafValues></_>
    <_>
      <internalNodes>
        0 -1 42718 -1.7646335065364838e-02</internalNodes>
      <leafValues>
        4.9083474278450012e-01 -6.4005506038665771e-01</leafValues></_>
    <_>
      <internalNodes>
        0 -1 69141 -1.8905203323811293e-03</internalNodes>
      <leafValues>
        -7.9676175117492676e-01 3.8692453503608704e-01</leafValues></_>
    <_>
      <internalNodes>
        0 -1 76935 1.6769278794527054e-02</internalNodes>
      <leafValues>
        -5.5698210000991821e-01 5.3626447916030884e-01</leafValues></_>
    <_>
      <internalNodes>
        0 -1 38718 1.3802940957248211e-02</internalNodes>
      <leafValues>
        -7.6371747255325317e-01 4.2754924297332764e-01</leafValues></_></weakClassifiers></stage4>
</opencv_storage>
