<?xml version="1.0"?>
<opencv_storage>
<stage2>
  <maxWeakCount>5</maxWeakCount>
  <stageThreshold>-1.3507727384567261e+00</stageThreshold>
  <weakClassifiers>
    <_>
      <internalNodes>
        0 -1 76503 -6.1138428747653961e-02</internalNodes>
      <leafValues>
        6.1276364326477051e-01 -7.4363291263580322e-01</leafValues></_>
    <_>
      <internalNodes>
        0 -1 52560 1.4177212119102478e-01</internalNodes>
      <leafValues>
        -8.3071511983871460e-01 4.2536857724189758e-01</leafValues></_>
    <_>
      <internalNodes>
        0 -1 36647 3.1762205064296722e-02</internalNodes>
      <leafValues>
        -7.0858383178710938e-01 5.2237278223037720e-01</leafValues></_>
    <_>
      <internalNodes>
        0 -1 69699 1.1713532730937004e-03</internalNodes>
      <leafValues>
        -8.8628691434860229e-01 3.0850666761398315e-01</leafValues></_>
    <_>
      <internalNodes>
        0 -1 77181 1.2759812176227570e-02</internalNodes>
      <leafValues>
        -4.5353072881698608e-01 6.2365233898162842e-01</leafValues></_></weakClassifiers></stage2>
</opencv_storage>
